
\data\
ngram 1=10
ngram 2=9
ngram 3=1

\1-grams:
-0.9294189	19	-0.3606157
-0.6283889	</s>
-99	<s>	-0.5177391
-1.230449	三体	-0.2466723
-0.9294189	你好
-0.9294189	刘慈欣	-0.288065
-0.9294189	名字
-1.230449	石酒	-0.1845244
-0.9294189	重力	-0.4227636
-1.230449	重复	-0.2747011

\2-grams:
-0.1760913	19 </s>
-0.60206	<s> 三体
-0.30103	<s> 你好
-0.30103	三体 重力
-0.4771213	刘慈欣 </s>
-0.4771213	刘慈欣 重力
-0.30103	石酒 </s>
-0.1760913	重力 19	0
-0.30103	重复 石酒

\3-grams:
-0.1760913	重力 19 </s>

\end\
